\data\
ngram 1=18
ngram 2=84
ngram 3=184

\1-grams:
-1.8646936	<unk>	0
0	<s>	-2.8279476
-1.1016498	</s>	0
-0.93988436	o	-0.51649296
-0.98741084	n	-0.253978
-0.8970496	e	-0.14058897
-1.1016498	z	-0.41953462
-1.5015156	r	-0.2925107
-1.3623365	i	-0.17286226
-1.0407848	s	-0.47752658
-1.5924354	v	-0.57300127
-1.0407848	f	-0.47752658
-1.7075702	g	-0.17286226
-1.5015156	h	-0.2352352
-1.0407848	t	-0.3507669
-1.7075702	w	-0.17286226
-1.7075702	x	-0.17286226
-1.7075702	u	-0.17286226

\2-grams:
-1.1556168	o </s>	0
-1.2052654	n </s>	0
-1.174944	e </s>	0
-1.1355753	r </s>	0
-1.0834298	h </s>	0
-1.310105	t </s>	0
-1.0259818	x </s>	0
-0.74001235	<s> o	-2.8815749
-1.092815	o o	-2.3802114
-1.0849386	n o	-2.2013972
-1.033011	e o	-2.8043666
-0.6880332	r o	-2.4941547
-0.42976642	f o	-3.3992121
-0.9858987	h o	-2.3879828
-1.1878164	t o	-2.206826
-0.3920161	w o	-2.4972754
-0.9274556	x o	-2.1865797
-1.0419879	<s> n	-2.8808136
-0.63953114	o n	-3.1519823
-1.1214645	n n	-2.1931245
-1.0753688	e n	-2.5394478
-1.0689183	r n	-2.1818435
-0.82036453	i n	-3.3944516
-1.0160393	h n	-2.2183604
-1.2248806	t n	-2.1968207
-0.95788	x n	-2.1875207
-1.0414379	<s> e	-2.8811944
-1.0737491	o e	-2.5006022
-1.0492264	n e	-2.757902
-0.8865091	e e	-2.5407465
-0.17545508	z e	-3.3948019
-0.67536604	r e	-3.123307
-0.42515922	s e	-3.3987498
-0.115442194	v e	-2.79443
-0.9577148	h e	-2.1799345
-1.1536682	t e	-2.1722136
-0.8990238	x e	-2.2004857
-1.0421573	<s> z	-2.8808136
-1.1556168	o z	-2.6782148
-1.2052654	n z	-2.2004857
-1.174944	e z	-2.7974985
-1.1355753	r z	-2.1663315
-1.310105	t z	-2.1780171
-1.0259818	x z	-2.209515
-1.4924195	e r	-3.3948019
-1.2610776	h r	-3.3981717
-0.45652378	u r	-2.4961221
-0.49399954	n i	-3.3944516
-0.73550683	e i	-3.3936336
-0.45848596	s i	-3.39794
-0.45848596	f i	-3.3942182
-0.7404774	<s> s	-2.8811944
-1.1336582	o s	-2.4913616
-1.1613468	n s	-2.1893966
-1.1223087	e s	-2.803457
-1.1009693	r s	-2.2013972
-1.0484287	h s	-2.213075
-1.2654057	t s	-2.20412
-0.9905974	x s	-2.2004857
-1.5548114	e v	-3.3987498
-1.0032395	i v	-3.3942182
-0.7406679	<s> f	-2.881004
-1.1336582	o f	-2.4996872
-1.1613468	n f	-2.1949766
-1.1223087	e f	-2.7965744
-1.1009693	r f	-2.1968207
-1.0484287	h f	-2.209515
-1.2654057	t f	-2.198657
-0.9905974	x f	-2.1949766
-1.0210941	i g	-3.3936336
-0.7536535	o h	-2.557106
-0.45652378	g h	-3.3936336
-0.6263944	t h	-3.3981717
-0.7406679	<s> t	-2.881004
-1.1336582	o t	-2.4996872
-1.1613468	n t	-2.2253094
-1.1223087	e t	-2.8025458
-1.1009693	r t	-2.1977398
-0.66597646	h t	-2.4468477
-1.2654057	t t	-2.1921957
-0.9905974	x t	-2.1875207
-0.6362585	t w	-3.4003654
-1.0210941	i x	-2.4948502
-1.7896633	o u	-3.3992121

\3-grams:
-0.5778202	r o </s>
-0.512621	w o </s>
-0.6165719	e n </s>
-0.5243601	n e </s>
-0.6295287	e e </s>
-0.8127993	v e </s>
-0.5077199	u r </s>
-0.5297112	o h </s>
-0.5724685	h t </s>
-0.5063541	i x </s>
-1.2432103	r o o
-0.89660263	w o o
-0.9916183	e n o
-0.90427077	n e o
-0.9937003	e e o
-1.2000262	v e o
-0.00013913348	e r o
-0.8851417	u r o
-0.30136704	<s> f o
-0.2959154	o f o
-0.30359676	n f o
-0.2961479	e f o
-0.2980678	r f o
-0.2946164	h f o
-0.296264	t f o
-0.3073308	x f o
-0.7134375	o h o
-0.93946564	h t o
-0.000102727674	t w o
-0.9104074	i x o
-0.30171964	<s> o n
-0.18046704	o o n
-0.299779	n o n
-0.30139902	e o n
-0.94542766	r o n
-0.4599489	h o n
-0.31624094	t o n
-1.1921891	w o n
-0.2886082	x o n
-1.3014563	e n n
-1.2296187	n e n
-1.3006876	e e n
-0.2733454	v e n
-1.2182763	u r n
-0.00014866267	n i n
-1.1846992	o h n
-1.251144	h t n
-1.2107537	i x n
-1.2377412	r o e
-1.2137619	w o e
-0.05267385	o n e
-1.2919195	e n e
-0.00015951274	i n e
-1.228079	n e e
-1.2886072	e e e
-0.026294064	r e e
-1.4951072	v e e
-0.0001899669	<s> z e
-0.00030291968	o z e
-0.00091066473	n z e
-0.00023016136	e z e
-0.0009852495	r z e
-0.00095907203	t z e
-0.0008919103	x z e
-0.00013698426	h r e
-1.2060243	u r e
-0.30117196	<s> s e
-0.29396433	o s e
-0.3131267	n s e
-0.3021116	e s e
-0.29898244	r s e
-0.3161316	h s e
-0.30352148	t s e
-0.2820585	x s e
-0.00004046165	e v e
-0.00004090176	i v e
-1.2229254	o h e
-1.2755055	h t e
-1.1974286	i x e
-0.95013857	r o z
-1.1938298	w o z
-1.2944078	e n z
-1.2336718	n e z
-1.2655591	e e z
-1.5056925	v e z
-1.2341098	u r z
-1.2703041	h t z
-1.1890862	i x z
-0.00016937904	z e r
-0.00016412216	t h r
-0.00011267035	o u r
-0.0003883855	<s> n i
-0.943844	o n i
-0.0018954629	n n i
-0.7056029	e n i
-0.0019454361	r n i
-0.0017882294	h n i
-0.0018793695	t n i
-0.0019201366	x n i
-0.0004662235	<s> e i
-0.0011207542	o e i
-1.5080568	n e i
-0.6988857	e e i
-1.2348437	r e i
-0.002348501	h e i
-0.0023907176	t e i
-0.0022396725	x e i
-0.30120364	<s> s i
-0.30900043	o s i
-0.29077423	n s i
-0.30032772	e s i
-0.30460674	r s i
-0.28785932	h s i
-0.30004704	t s i
-0.3224547	x s i
-0.3010133	<s> f i
-0.30698597	o f i
-0.30002612	n f i
-0.30636117	e f i
-0.30557358	r f i
-0.30906805	h f i
-0.3074099	t f i
-0.29635412	x f i
-0.9631562	r o s
-0.9040057	w o s
-1.0037965	e n s
-0.90981835	n e s
-0.9839808	e e s
-1.2029893	v e s
-0.89728504	u r s
-0.88859653	o h s
-0.94231874	h t s
-0.89667416	i x s
-0.00016857625	s e v
-0.00015785544	f i v
-0.9482591	r o f
-0.902163	w o f
-0.9982098	e n f
-0.91394573	n e f
-0.9902747	e e f
-1.2161677	v e f
-0.9018668	u r f
-0.8921605	o h f
-0.94778955	h t f
-0.9021864	i x f
-0.00015876179	e i g
-0.30101898	<s> o h
-0.47167438	o o h
-0.305553	n o h
-0.30147132	e o h
-1.2130698	r o h
-0.1865592	h o h
-0.2894446	t o h
-0.3172912	x o h
-0.00011414624	i g h
-0.3015218	<s> t h
-0.29901063	o t h
-0.30761278	n t h
-0.3073673	e t h
-0.30711555	r t h
-1.2180272	h t h
-0.30719432	t t h
-0.30441007	x t h
-0.95009357	r o t
-0.9003282	w o t
-0.9678416	e n t
-0.90799654	n e t
-0.9930003	e e t
-1.2011389	v e t
-0.9009465	u r t
-0.8927634	o h t
-0.00013760573	g h t
-0.9542604	h t t
-0.9096467	i x t
-0.30114684	<s> t w
-0.304532	o t w
-0.2972666	n t w
-0.29550287	e t w
-0.29793176	r t w
-1.2537861	h t w
-0.2978921	t t w
-0.30066693	x t w
-0.00015720805	s i x
-0.00017041487	f o u

\end\
